digraph Tree {
node [shape=box, fontname="helvetica"] ;
edge [fontname="helvetica"] ;
0 [label="Longitude <= 4.896\nfriedman_mse = 1.249\nsamples = 14540\nvalue = -0.0"] ;
1 [label="Longitude <= 3.106\nfriedman_mse = 0.799\nsamples = 11109\nvalue = -0.339"] ;
0 -> 1 [labeldistance=2.5, labelangle=45, headlabel="True"] ;
2 [label="Latitude <= 34.455\nfriedman_mse = 0.501\nsamples = 5315\nvalue = -0.722"] ;
1 -> 2 ;
3 [label="friedman_mse = 0.487\nsamples = 2555\nvalue = -0.505"] ;
2 -> 3 ;
4 [label="friedman_mse = 0.43\nsamples = 2760\nvalue = -0.922"] ;
2 -> 4 ;
5 [label="AveOccup <= 2.418\nfriedman_mse = 0.816\nsamples = 5794\nvalue = 0.012"] ;
1 -> 5 ;
6 [label="friedman_mse = 1.21\nsamples = 1526\nvalue = 0.659"] ;
5 -> 6 ;
7 [label="friedman_mse = 0.472\nsamples = 4268\nvalue = -0.219"] ;
5 -> 7 ;
8 [label="Longitude <= 6.121\nfriedman_mse = 1.126\nsamples = 3431\nvalue = 1.098"] ;
0 -> 8 [labeldistance=2.5, labelangle=-45, headlabel="False"] ;
9 [label="friedman_mse = 0.85\nsamples = 1977\nvalue = 0.659"] ;
8 -> 9 ;
10 [label="friedman_mse = 0.885\nsamples = 1454\nvalue = 1.695"] ;
8 -> 10 ;
}